Language model created by QuickLM on Thu Dec  2 16:17:53 EST 2021
Copyright (c) 1996-2010 Carnegie Mellon University and Alexander I. Rudnicky

The model is in standard ARPA format, designed by Doug Paul while he was at MITRE.

The code that was used to produce this language model is available in Open Source.
Please visit http://www.speech.cs.cmu.edu/tools/ for more information

The (fixed) discount mass is 0.5. The backoffs are computed using the ratio method.
This model based on a corpus of 1221 sentences and 189 words

\data\
ngram 1=189
ngram 2=431
ngram 3=552

\1-grams:
-1.2774 </s> -0.3010
-1.2774 <s> -0.2768
-2.6829 ACARA -0.2999
-1.8870 ADA -0.2845
-2.9839 AGUSTUS -0.2775
-1.4665 AKAN -0.2765
-2.8201 AKHIR -0.2943
-3.2850 ALAM -0.2988
-3.2850 ALUMNI -0.2910
-3.2850 ANDA -0.2963
-2.9839 APRIL -0.2775
-3.2850 BAB -0.3004
-2.8078 BALI -0.2875
-3.2850 BANDUNG -0.2910
-2.9839 BARU -0.2775
-3.2850 BELAJAR -0.3008
-3.2850 BELANJA -0.3008
-3.3227 BELAS -0.3001
-3.2850 BENDERA -0.2931
-2.6829 BERANGKAT -0.2965
-2.6920 BERENCANA -0.2963
-2.9839 BERKUNJUNG -0.2965
-2.8201 BERLIBUR -0.2864
-3.2850 BERMAIN -0.2963
-3.2850 BERTAMU -0.2965
-2.8078 BERTEMU -0.2967
-3.2850 BESAR -0.2910
-2.3819 BESOK -0.2756
-2.6829 BIMBINGAN -0.2876
-3.2850 BINATANG -0.2910
-1.9645 BULAN -0.2890
-2.9839 BULANAN -0.2892
-3.2850 CANDI -0.2910
-3.2850 CAPIT -0.2910
-3.2850 CINCIN -0.2988
-2.9839 CIREBON -0.2910
-2.9839 COKELAT -0.2829
-2.6920 CUTI -0.2853
-2.9839 DAN -0.2960
-2.4399 DENGAN -0.2979
-2.0081 DEPAN -0.2691
-2.9839 DESEMBER -0.2775
-2.2850 DI -0.2841
-2.8078 DIA -0.2845
-3.2850 DISANA -0.2910
-3.2850 DOKTER -0.2931
-2.5860 DOSEN -0.2952
-3.3227 DUA -0.3008
-3.2850 EMPAT -0.3001
-3.2850 ENAM -0.3001
-2.6829 FEBRUARI -0.2761
-3.2850 FESTIVAL -0.2910
-3.2850 FILIPINA -0.2988
-3.2850 FITRAH -0.2992
-3.2850 FORUM -0.2910
-3.2850 FUNDAMENTAL -0.2988
-1.7409 HARI -0.2647
-2.8078 HINGGA -0.2985
-3.2850 HOTEL -0.3008
-2.5068 INGIN -0.2945
-2.3307 INI -0.2775
-2.6829 JADWAL -0.2981
-2.9839 JAKARTA -0.2829
-2.8078 JANJI -0.2999
-2.6920 JANUARI -0.2775
-3.2850 JEPANG -0.2981
-3.2850 JULI -0.2775
-2.6829 JUMAT -0.2753
-2.9839 JUNI -0.2775
-3.2850 JURNAL -0.2963
-3.2850 KAKEK -0.2812
-2.2058 KAMI -0.2794
-3.2850 KAMIS -0.2775
-2.8078 KAMPUS -0.2686
-1.9839 KE -0.2938
-3.2850 KEDUA -0.3006
-3.2850 KEGIATAN -0.2988
-2.8078 KELAS -0.2988
-2.9839 KELUARGA -0.2880
-2.6920 KITA -0.2859
-3.2850 KLINIK -0.2910
-3.2850 KOMUNITAS -0.3006
-3.2850 KONFERENSI -0.3008
-3.2850 KOTA -0.3004
-3.2850 KUBUR -0.2910
-2.6829 KULIAH -0.2892
-2.9839 LAPORAN -0.2992
-3.2850 LIBUR -0.2997
-3.2850 LIBURAN -0.2994
-2.5860 LIMA -0.2967
-3.2850 LOKASI -0.2910
-3.2850 LUAR -0.3008
-2.9839 LUSA -0.2730
-2.9839 MAKAM -0.2961
-2.9839 MALAM -0.2990
-3.2850 MALL -0.2931
-2.9839 MARET -0.2775
-2.9839 MEETING -0.2992
-2.8201 MELAKUKAN -0.2999
-3.2850 MEMBAYAR -0.3008
-2.9839 MEMBICARAKAN -0.3004
-2.9839 MEMESAN -0.3004
-3.2850 MEMILIKI -0.3001
-3.2850 MENARI -0.2910
-2.9839 MENDATANGI -0.3004
-3.2850 MENEMUI -0.2999
-2.9839 MENGADAKAN -0.2997
-2.6920 MENGAMBIL -0.3001
-2.2436 MENGHADIRI -0.2965
-2.5860 MENGIKUTI -0.2970
-3.2850 MENGINAP -0.2988
-3.2850 MENGIRIMKAN -0.3008
-2.8078 MENGUMPULKAN -0.2999
-2.3819 MENGUNJUNGI -0.2976
-3.2850 MENJADI -0.2999
-2.1710 MINGGU -0.2722
-2.8078 NANTI -0.2775
-2.9839 NATAL -0.2669
-2.9839 NENEK -0.2908
-2.5860 NOVEMBER -0.2775
-3.2850 ORANG -0.3008
-3.2850 PABRIK -0.3006
-1.6432 PADA -0.2784
-2.5860 PAGI -0.2669
-2.8078 PEKAN -0.2730
-3.2850 PEMBIMBING -0.2910
-3.2850 PEMERIKSAAN -0.2910
-3.2850 PEMROSESAN -0.3008
-3.2850 PENELITIAN -0.2988
-2.1738 PERGI -0.2952
-3.2850 PERIKSA -0.2965
-2.8078 PERLU -0.2976
-3.2850 PERNIKAHAN -0.2910
-2.9839 PERTEMUAN -0.2992
-3.2850 PESAN -0.3001
-3.2850 PONAKAN -0.2992
-2.8078 PRESENTASI -0.2979
-3.2850 PROPOSAL -0.2990
-3.2850 PUKUL -0.2999
-3.2850 PULUH -0.3006
-2.9839 RABU -0.2775
-2.5860 RAPAT -0.2961
-3.2850 RENCANA -0.3008
-2.9839 REUNI -0.2908
-2.8078 RUMAH -0.3004
-2.3819 SABTU -0.2770
-3.2850 SANTIKA -0.3008
-3.2850 SATU -0.3001
-1.3513 SAYA -0.2749
-3.2850 SEKOLAH -0.2910
-3.2850 SELAMA -0.3004
-2.5860 SELASA -0.2775
-3.2850 SELATAN -0.2981
-2.6829 SEMINAR -0.2997
-2.3307 SENIN -0.2698
-3.2850 SEPTEMBER -0.2775
-3.2850 SEPULUH -0.2999
-2.8078 SIANG -0.2746
-2.8078 SIDANG -0.2899
-2.6829 SORE -0.2746
-3.2850 SUARA -0.2910
-3.2850 SUPPORT -0.2931
-3.2850 SURVEI -0.3008
-3.2850 SYUKURAN -0.2910
-2.5129 TAHUN -0.2722
-3.2850 TAMAN -0.3008
-2.3864 TANGGAL -0.2983
-2.4399 TEMAN -0.2683
-2.5860 TESIS -0.2815
-3.2850 TIDUR -0.3004
-2.8078 TIGA -0.2924
-3.2850 TIM -0.3008
-3.2850 TOKO -0.3008
-3.2850 TUA -0.2910
-2.8078 TUGAS -0.2981
-3.2850 TUJUH -0.3006
-3.2850 ULANG -0.2997
-3.2850 UNDANGAN -0.3008
-2.9839 UNTUK -0.2979
-3.2850 UPACARA -0.3008
-3.2850 WADUK -0.2910
-3.2850 WALI -0.2931
-3.2850 WILAYAH -0.3008
-2.8078 WISATA -0.2906
-2.9839 WISMA -0.2910
-2.8078 WISUDA -0.2894
-3.2850 ZAKAT -0.3008
-3.2850 ZIARAH -0.3008
-3.3227 ZUMBA -0.2910

\2-grams:
-1.8314 <s> DIA 0.0000
-1.2294 <s> KAMI 0.0000
-1.7156 <s> KITA 0.0000
-0.3904 <s> SAYA -0.0149
-0.9031 ACARA KELUARGA -0.1761
-0.9031 ACARA KONFERENSI 0.0000
-0.9031 ACARA SYUKURAN 0.0000
-0.9031 ACARA ULANG 0.0000
-1.6990 ADA ACARA -0.2430
-1.2218 ADA BIMBINGAN -0.0969
-1.6990 ADA DISANA 0.0000
-1.2218 ADA JADWAL -0.0969
-1.2218 ADA JANJI 0.0000
-1.6990 ADA KE -0.2900
-1.6990 ADA KEGIATAN 0.0000
-1.6990 ADA KELAS -0.2218
-1.3979 ADA KULIAH -0.1761
-1.3979 ADA MEETING 0.0000
-1.6990 ADA PERGI -0.0884
-1.3979 ADA PERTEMUAN 0.0000
-1.6990 ADA PRESENTASI -0.2218
-1.6990 ADA RAPAT -0.2553
-1.6990 ADA REUNI -0.1761
-1.6990 ADA SURVEI 0.0000
-0.3010 AGUSTUS </s> -0.3010
-1.6424 AKAN ADA -0.2553
-2.1195 AKAN BELAJAR 0.0000
-1.5174 AKAN BERANGKAT 0.0000
-2.1195 AKAN BERKUNJUNG 0.0000
-2.1195 AKAN BERTAMU 0.0000
-1.8184 AKAN BERTEMU -0.1249
-1.6546 AKAN MELAKUKAN 0.0000
-2.1195 AKAN MEMBAYAR 0.0000
-1.8184 AKAN MEMBICARAKAN 0.0000
-2.1195 AKAN MENDATANGI -0.1761
-1.8184 AKAN MENGADAKAN 0.0000
-1.6424 AKAN MENGAMBIL 0.0000
-1.1195 AKAN MENGHADIRI -0.0378
-1.4205 AKAN MENGIKUTI 0.0000
-2.1195 AKAN MENGINAP 0.0000
-2.1195 AKAN MENGIRIMKAN 0.0000
-1.6424 AKAN MENGUMPULKAN 0.0000
-1.2744 AKAN MENGUNJUNGI -0.0512
-2.1195 AKAN MENJADI 0.0000
-1.1693 AKAN PERGI 0.0000
-2.1195 AKAN PRESENTASI -0.2218
-2.1195 AKAN SIDANG -0.1249
-2.1195 AKAN TIDUR 0.0000
-2.1195 AKAN WISATA -0.2218
-2.1195 AKAN WISUDA -0.1249
-0.7659 AKHIR BULAN -0.2687
-0.7659 AKHIR PEKAN -0.2218
-0.8037 AKHIR TAHUN -0.2660
-0.3010 ALAM DI -0.2553
-0.3010 ALUMNI PADA -0.1949
-0.3010 ANDA BULAN -0.2225
-0.3010 APRIL </s> -0.3010
-0.3010 BAB TIGA -0.2218
-0.7782 BALI BULAN -0.2225
-0.7782 BALI HARI -0.2483
-0.7782 BALI HINGGA -0.2218
-0.3010 BANDUNG PADA -0.2960
-0.3010 BARU </s> -0.3010
-0.3010 BELAJAR FUNDAMENTAL 0.0000
-0.3010 BELANJA CAPIT 0.0000
-0.3010 BELAS JANUARI 0.0000
-0.3010 BENDERA HARI -0.2553
-0.3010 BERANGKAT KE -0.2553
-0.8939 BERENCANA BELANJA 0.0000
-0.9317 BERENCANA MENGAMBIL 0.0000
-0.8939 BERENCANA PERGI -0.2676
-0.8939 BERENCANA SIDANG -0.1249
-0.3010 BERKUNJUNG KE -0.2788
-0.7659 BERLIBUR KE -0.2900
-0.4834 BERLIBUR PADA -0.1826
-0.3010 BERMAIN BULAN -0.2225
-0.3010 BERTAMU KE -0.2788
-0.7782 BERTEMU DENGAN -0.1963
-0.7782 BERTEMU DOSEN -0.2553
-0.7782 BERTEMU TEMAN -0.2688
-0.3010 BESAR PADA -0.1949
-0.5051 BESOK </s> -0.3010
-0.9031 BESOK PAGI -0.2041
-1.2041 BESOK SIANG -0.2218
-0.9031 BIMBINGAN DENGAN -0.2341
-0.9031 BIMBINGAN HINGGA -0.2218
-0.9031 BIMBINGAN PADA -0.1949
-0.9031 BIMBINGAN TESIS -0.2553
-0.3010 BINATANG PADA -0.2960
-1.6215 BULAN AGUSTUS 0.0000
-1.6215 BULAN APRIL 0.0000
-0.7816 BULAN DEPAN -0.0224
-1.6215 BULAN DESEMBER 0.0000
-1.6215 BULAN FEBRUARI -0.2430
-1.6215 BULAN INI 0.0000
-1.6215 BULAN JANUARI 0.0000
-1.6215 BULAN JULI 0.0000
-1.3205 BULAN JUNI 0.0000
-1.6215 BULAN MARET 0.0000
-1.1444 BULAN NOVEMBER 0.0000
-1.6215 BULAN SEPTEMBER 0.0000
-0.6021 BULANAN BESOK -0.2430
-0.6021 BULANAN PADA -0.1949
-0.3010 CANDI PADA -0.1949
-0.3010 CAPIT PADA -0.2484
-0.3010 CINCIN DI -0.2553
-0.3010 CIREBON PADA -0.2428
-0.6021 COKELAT HARI -0.2483
-0.6021 COKELAT PADA -0.2484
-0.6114 CUTI BULAN -0.2099
-0.8939 CUTI JUMAT -0.2430
-0.8939 CUTI PADA -0.2760
-0.6021 DAN MINGGU -0.2083
-0.6021 DAN SENIN -0.0872
-0.8451 DENGAN DOSEN -0.2041
-1.1461 DENGAN KOMUNITAS 0.0000
-0.6690 DENGAN TEMAN -0.1963
-1.1461 DENGAN TIM 0.0000
-0.3246 DEPAN </s> -0.3010
-1.5779 DEPAN HARI -0.2553
-0.3010 DESEMBER </s> -0.3010
-1.3010 DI AKHIR -0.2194
-1.3010 DI BALI -0.2218
-1.0000 DI BULAN -0.2798
-1.3010 DI HARI -0.2820
-1.3010 DI HOTEL 0.0000
-1.0000 DI KAMPUS -0.1249
-1.0000 DI TANGGAL -0.2424
-0.4771 DIA AKAN -0.2944
-0.7782 DIA INGIN -0.2632
-0.3010 DISANA PADA -0.2960
-0.3010 DOKTER HARI -0.2820
-1.0000 DOSEN BESOK -0.1383
-1.0000 DOSEN DI -0.2788
-1.0000 DOSEN PEMBIMBING 0.0000
-1.0000 DOSEN TAHUN -0.2206
-1.0000 DOSEN WALI 0.0000
-0.3010 DUA BELAS 0.0000
-0.3010 EMPAT JANUARI 0.0000
-0.3010 ENAM FEBRUARI -0.0969
-0.4260 FEBRUARI </s> -0.3010
-0.9031 FEBRUARI TAHUN -0.2206
-0.3010 FESTIVAL PADA -0.2960
-0.3010 FILIPINA DI -0.2553
-0.3010 FITRAH BESOK -0.1383
-0.3010 FORUM PADA -0.2760
-0.3010 FUNDAMENTAL DI -0.2553
-1.5441 HARI </s> -0.3010
-1.8451 HARI INI 0.0000
-1.3680 HARI JUMAT -0.0969
-1.8451 HARI KAMIS 0.0000
-1.1461 HARI MINGGU -0.1871
-1.8451 HARI NATAL -0.1761
-1.5441 HARI RABU 0.0000
-0.9420 HARI SABTU 0.0000
-1.1461 HARI SELASA 0.0000
-1.0000 HARI SENIN 0.0000
-0.7782 HINGGA LUSA -0.1761
-0.7782 HINGGA PAGI -0.2553
-0.7782 HINGGA SORE -0.1761
-0.3010 HOTEL SANTIKA 0.0000
-1.0792 INGIN BERKUNJUNG 0.0000
-1.0792 INGIN BERLIBUR -0.2194
-1.0792 INGIN MEMESAN -0.1761
-1.0792 INGIN MENGUNJUNGI -0.2730
-1.0792 INGIN PERGI -0.0884
-1.0792 INGIN ZIARAH 0.0000
-0.3010 INI </s> -0.3010
-0.9031 JADWAL BIMBINGAN -0.2430
-0.9031 JADWAL PERIKSA 0.0000
-0.9031 JADWAL PRESENTASI -0.2218
-0.9031 JADWAL RAPAT -0.2553
-0.6021 JAKARTA HARI -0.2553
-0.6021 JAKARTA PADA -0.2484
-0.7782 JANJI BERTEMU -0.2218
-0.4771 JANJI UNTUK 0.0000
-0.3010 JANUARI </s> -0.3010
-0.3010 JEPANG MINGGU -0.1871
-0.3010 JULI </s> -0.3010
-0.4260 JUMAT </s> -0.3010
-0.9031 JUMAT INI 0.0000
-0.3010 JUNI </s> -0.3010
-0.3010 JURNAL BULAN -0.2225
-0.3010 KAKEK SAYA -0.2934
-1.0792 KAMI ADA -0.2648
-0.4260 KAMI AKAN -0.1717
-1.3802 KAMI PERLU -0.2218
-0.3010 KAMIS </s> -0.3010
-0.7782 KAMPUS </s> -0.3010
-0.7782 KAMPUS HARI -0.2553
-0.7782 KAMPUS LUSA -0.1761
-1.6021 KE ACARA -0.2430
-1.3010 KE BALI -0.1249
-1.6021 KE BANDUNG 0.0000
-1.6021 KE CANDI 0.0000
-1.6021 KE CIREBON 0.0000
-1.6021 KE DOKTER 0.0000
-1.6021 KE FILIPINA 0.0000
-1.6021 KE JAKARTA -0.1761
-1.6021 KE JEPANG 0.0000
-1.6021 KE KAMPUS -0.2218
-1.6021 KE KELAS -0.2218
-1.6021 KE KLINIK 0.0000
-1.6021 KE LUAR 0.0000
-1.6021 KE MAKAM -0.1761
-1.6021 KE MALL 0.0000
-1.6021 KE PABRIK 0.0000
-1.3010 KE RUMAH 0.0000
-1.6021 KE TAMAN 0.0000
-0.3010 KEDUA DESEMBER 0.0000
-0.3010 KEGIATAN DI -0.2553
-0.7782 KELAS MENARI 0.0000
-0.7782 KELAS PAGI -0.2041
-0.7782 KELAS SORE -0.2430
-0.6021 KELUARGA MINGGU -0.1871
-0.6021 KELUARGA PADA -0.2484
-0.3010 KITA AKAN -0.2298
-0.3010 KLINIK PADA -0.1949
-0.3010 KOMUNITAS BULANAN -0.1761
-0.3010 KONFERENSI JURNAL 0.0000
-0.3010 KOTA PEKAN -0.1249
-0.3010 KUBUR PADA -0.2760
-0.9031 KULIAH DENGAN -0.1963
-0.6021 KULIAH PADA -0.1949
-0.9031 KULIAH PEMROSESAN 0.0000
-0.6021 LAPORAN BAB 0.0000
-0.6021 LAPORAN DENGAN -0.2341
-0.3010 LIBUR TAHUN -0.2206
-0.3010 LIBURAN DENGAN -0.1963
-1.0000 LIMA AGUSTUS 0.0000
-1.0000 LIMA FEBRUARI -0.0969
-1.0000 LIMA JANUARI 0.0000
-1.0000 LIMA NOVEMBER 0.0000
-1.0000 LIMA SORE -0.2430
-0.3010 LOKASI PADA -0.1949
-0.3010 LUAR KOTA 0.0000
-0.6021 LUSA </s> -0.3010
-0.6021 LUSA DEPAN -0.0224
-0.6021 MAKAM BULAN -0.2225
-0.6021 MAKAM KAKEK 0.0000
-0.3010 MALAM INI 0.0000
-0.3010 MALL HARI -0.2483
-0.3010 MARET </s> -0.3010
-0.6021 MEETING PAGI -0.2041
-0.6021 MEETING PEKAN -0.1249
-0.7659 MELAKUKAN PEMERIKSAAN 0.0000
-0.7659 MELAKUKAN WISATA -0.2218
-0.8037 MELAKUKAN ZUMBA 0.0000
-0.3010 MEMBAYAR ZAKAT 0.0000
-0.6021 MEMBICARAKAN LAPORAN -0.1761
-0.6021 MEMBICARAKAN RENCANA 0.0000
-0.6021 MEMESAN CINCIN 0.0000
-0.6021 MEMESAN COKELAT -0.1761
-0.3010 MEMILIKI JADWAL -0.2430
-0.3010 MENARI PADA -0.1949
-0.6021 MENDATANGI WILAYAH 0.0000
-0.6021 MENDATANGI WISMA 0.0000
-0.3010 MENEMUI DOSEN -0.2553
-0.6021 MENGADAKAN ACARA -0.2430
-0.6021 MENGADAKAN REUNI -0.1761
-0.3010 MENGAMBIL CUTI 0.0000
-1.3424 MENGHADIRI ACARA -0.2430
-1.3424 MENGHADIRI FESTIVAL 0.0000
-1.3424 MENGHADIRI FORUM 0.0000
-1.0414 MENGHADIRI RAPAT -0.2041
-0.8653 MENGHADIRI SEMINAR 0.0000
-1.3424 MENGHADIRI UNDANGAN 0.0000
-1.3424 MENGHADIRI UPACARA 0.0000
-1.3424 MENGHADIRI WISUDA -0.2218
-1.0000 MENGIKUTI KELAS -0.2218
-1.0000 MENGIKUTI RAPAT -0.2553
-1.0000 MENGIKUTI SEMINAR -0.0969
-1.0000 MENGIKUTI SIDANG -0.2218
-1.0000 MENGIKUTI WISUDA -0.1249
-0.3010 MENGINAP DI -0.2788
-0.3010 MENGIRIMKAN PESAN 0.0000
-0.7782 MENGUMPULKAN LAPORAN -0.1761
-0.4771 MENGUMPULKAN TUGAS -0.1249
-1.2041 MENGUNJUNGI CIREBON 0.0000
-1.2041 MENGUNJUNGI JAKARTA -0.1761
-1.2041 MENGUNJUNGI KELUARGA -0.1761
-1.2041 MENGUNJUNGI MAKAM -0.1761
-1.2041 MENGUNJUNGI ORANG 0.0000
-1.2041 MENGUNJUNGI RUMAH -0.1249
-1.2041 MENGUNJUNGI TOKO 0.0000
-1.2041 MENGUNJUNGI WISMA 0.0000
-0.3010 MENJADI DOSEN -0.2553
-0.7160 MINGGU </s> -0.3010
-1.4150 MINGGU DAN -0.1761
-0.6368 MINGGU DEPAN 0.0000
-1.4150 MINGGU KEDUA 0.0000
-0.3010 NANTI </s> -0.3010
-0.6021 NATAL </s> -0.3010
-0.6021 NATAL PADA -0.1949
-0.6021 NENEK DI -0.2788
-0.6021 NENEK HARI -0.2688
-0.3010 NOVEMBER </s> -0.3010
-0.3010 ORANG TUA 0.0000
-0.3010 PABRIK COKELAT -0.1761
-1.6603 PADA AKHIR -0.1280
-0.9428 PADA BULAN -0.1685
-1.9428 PADA EMPAT 0.0000
-0.6641 PADA HARI -0.0357
-1.9428 PADA LIBUR 0.0000
-1.9428 PADA LIMA -0.2553
-1.9428 PADA MINGGU -0.2840
-1.9428 PADA PUKUL 0.0000
-1.9428 PADA SIANG -0.2218
-1.9428 PADA TAHUN -0.2206
-1.2512 PADA TANGGAL -0.0978
-1.9428 PADA TUJUH 0.0000
-0.6990 PAGI </s> -0.3010
-1.0000 PAGI HARI -0.2884
-0.6990 PAGI INI 0.0000
-0.7782 PEKAN </s> -0.3010
-0.4771 PEKAN DEPAN -0.0224
-0.3010 PEMBIMBING PADA -0.1949
-0.3010 PEMERIKSAAN PADA -0.1949
-0.3010 PEMROSESAN SUARA 0.0000
-0.3010 PENELITIAN DI -0.2788
-1.1296 PERGI BERLIBUR -0.1280
-0.4122 PERGI KE -0.1614
-1.4122 PERGI WISATA -0.2218
-0.3010 PERIKSA KE -0.2900
-0.7782 PERLU MEMESAN -0.1761
-0.7782 PERLU MENDATANGI -0.1761
-0.7782 PERLU MENGHADIRI -0.2808
-0.3010 PERNIKAHAN PADA -0.1949
-0.6021 PERTEMUAN ALUMNI 0.0000
-0.6021 PERTEMUAN DENGAN -0.2688
-0.3010 PESAN SORE -0.1761
-0.3010 PONAKAN BESOK -0.1383
-0.7782 PRESENTASI DI -0.2553
-0.7782 PRESENTASI PENELITIAN 0.0000
-0.7782 PRESENTASI TUGAS -0.2218
-0.3010 PROPOSAL SENIN -0.0872
-0.3010 PUKUL LIMA -0.2553
-0.3010 PULUH MARET 0.0000
-0.3010 RABU </s> -0.3010
-1.0000 RAPAT BULANAN -0.1761
-1.0000 RAPAT DENGAN -0.2688
-1.0000 RAPAT NATAL -0.1761
-1.0000 RAPAT SIANG -0.2218
-1.0000 RAPAT TANGGAL -0.2098
-0.3010 RENCANA LIBURAN 0.0000
-0.6021 REUNI PADA -0.1949
-0.6021 REUNI SEKOLAH 0.0000
-0.7782 RUMAH ANDA 0.0000
-0.4771 RUMAH NENEK 0.0000
-0.3590 SABTU </s> -0.3010
-1.2041 SABTU DAN -0.1761
-0.3010 SANTIKA SELAMA 0.0000
-0.3010 SATU FEBRUARI -0.0969
-0.9337 SAYA ADA -0.0492
-0.5278 SAYA AKAN -0.0439
-1.6418 SAYA BERENCANA 0.0000
-1.7576 SAYA BESOK 0.0000
-1.5357 SAYA INGIN -0.0669
-2.2347 SAYA MEMILIKI 0.0000
-1.9337 SAYA PERLU -0.1249
-0.3010 SEKOLAH PADA -0.2484
-0.3010 SELAMA TIGA -0.2218
-0.3010 SELASA </s> -0.3010
-0.3010 SELATAN MINGGU -0.1871
-0.9031 SEMINAR PROPOSAL 0.0000
-0.4260 SEMINAR TESIS -0.1461
-0.4102 SENIN </s> -0.3010
-1.2553 SENIN DEPAN -0.0224
-1.2553 SENIN MINGGU -0.1871
-0.3010 SEPTEMBER </s> -0.3010
-0.3010 SEPULUH NOVEMBER 0.0000
-0.7782 SIANG </s> -0.3010
-0.7782 SIANG INI 0.0000
-0.7782 SIANG NANTI 0.0000
-0.4771 SIDANG PADA -0.2484
-0.7782 SIDANG TESIS -0.2553
-0.9031 SORE </s> -0.3010
-0.9031 SORE INI 0.0000
-0.6021 SORE NANTI 0.0000
-0.3010 SUARA PADA -0.1949
-0.3010 SUPPORT HARI -0.2688
-0.3010 SURVEI LOKASI 0.0000
-0.3010 SYUKURAN PADA -0.2484
-1.1109 TAHUN </s> -0.3010
-0.7721 TAHUN BARU 0.0000
-0.7721 TAHUN DEPAN -0.0224
-1.0731 TAHUN PONAKAN 0.0000
-0.3010 TAMAN BERMAIN 0.0000
-1.2374 TANGGAL DUA 0.0000
-1.1996 TANGGAL ENAM 0.0000
-0.7225 TANGGAL LIMA -0.1461
-1.1996 TANGGAL SATU 0.0000
-1.1996 TANGGAL SEPULUH 0.0000
-1.1996 TANGGAL TIGA -0.2218
-0.8451 TEMAN HARI -0.2621
-1.1461 TEMAN KULIAH -0.1761
-1.1461 TEMAN MALAM 0.0000
-1.1461 TEMAN MINGGU -0.1871
-0.8451 TEMAN SAYA -0.2934
-1.0000 TESIS BULAN -0.2225
-1.0000 TESIS MINGGU -0.1871
-1.0000 TESIS PADA -0.1949
-0.6990 TESIS TEMAN -0.1963
-0.3010 TIDUR HINGGA -0.2218
-0.7782 TIGA HARI -0.2884
-0.7782 TIGA MALAM 0.0000
-0.7782 TIGA PULUH 0.0000
-0.3010 TIM SUPPORT 0.0000
-0.3010 TOKO BINATANG 0.0000
-0.3010 TUA PADA -0.2960
-0.7782 TUGAS BESAR 0.0000
-0.7782 TUGAS BESOK -0.1383
-0.7782 TUGAS KULIAH -0.1761
-0.3010 TUJUH APRIL 0.0000
-0.3010 ULANG TAHUN -0.2627
-0.3010 UNDANGAN PERNIKAHAN 0.0000
-0.6021 UNTUK MENEMUI 0.0000
-0.6021 UNTUK PERGI -0.0884
-0.3010 UPACARA BENDERA 0.0000
-0.3010 WADUK PADA -0.2760
-0.3010 WALI HARI -0.2688
-0.3010 WILAYAH SELATAN 0.0000
-0.7782 WISATA ALAM 0.0000
-0.7782 WISATA PADA -0.1949
-0.7782 WISATA WADUK 0.0000
-0.3010 WISMA PADA -0.2910
-0.4771 WISUDA PADA -0.2376
-0.7782 WISUDA TEMAN -0.2341
-0.3010 ZAKAT FITRAH 0.0000
-0.3010 ZIARAH KUBUR 0.0000
-0.3010 ZUMBA PADA -0.2760

\3-grams:
-0.4771 <s> DIA AKAN
-0.7782 <s> DIA INGIN
-1.0792 <s> KAMI ADA
-0.4260 <s> KAMI AKAN
-1.3802 <s> KAMI PERLU
-0.3010 <s> KITA AKAN
-0.9182 <s> SAYA ADA
-0.5124 <s> SAYA AKAN
-1.6263 <s> SAYA BERENCANA
-1.5203 <s> SAYA INGIN
-2.2192 <s> SAYA MEMILIKI
-1.9182 <s> SAYA PERLU
-0.3010 ACARA KELUARGA PADA
-0.3010 ACARA KONFERENSI JURNAL
-0.3010 ACARA SYUKURAN PADA
-0.3010 ACARA ULANG TAHUN
-0.3010 ADA ACARA KELUARGA
-0.7782 ADA BIMBINGAN HINGGA
-0.7782 ADA BIMBINGAN PADA
-0.7782 ADA BIMBINGAN TESIS
-0.3010 ADA DISANA PADA
-0.7782 ADA JADWAL PERIKSA
-0.7782 ADA JADWAL PRESENTASI
-0.7782 ADA JADWAL RAPAT
-0.7782 ADA JANJI BERTEMU
-0.4771 ADA JANJI UNTUK
-0.3010 ADA KE KLINIK
-0.3010 ADA KEGIATAN DI
-0.3010 ADA KELAS SORE
-0.6021 ADA KULIAH DENGAN
-0.6021 ADA KULIAH PEMROSESAN
-0.6021 ADA MEETING PAGI
-0.6021 ADA MEETING PEKAN
-0.3010 ADA PERGI KE
-0.6021 ADA PERTEMUAN ALUMNI
-0.6021 ADA PERTEMUAN DENGAN
-0.3010 ADA PRESENTASI TUGAS
-0.3010 ADA RAPAT DENGAN
-0.3010 ADA REUNI PADA
-0.3010 ADA SURVEI LOKASI
-0.7782 AKAN ADA ACARA
-0.7782 AKAN ADA BIMBINGAN
-0.7782 AKAN ADA DISANA
-0.3010 AKAN BELAJAR FUNDAMENTAL
-0.3010 AKAN BERANGKAT KE
-0.3010 AKAN BERKUNJUNG KE
-0.3010 AKAN BERTAMU KE
-0.6021 AKAN BERTEMU DOSEN
-0.6021 AKAN BERTEMU TEMAN
-0.7659 AKAN MELAKUKAN PEMERIKSAAN
-0.7659 AKAN MELAKUKAN WISATA
-0.8037 AKAN MELAKUKAN ZUMBA
-0.3010 AKAN MEMBAYAR ZAKAT
-0.6021 AKAN MEMBICARAKAN LAPORAN
-0.6021 AKAN MEMBICARAKAN RENCANA
-0.3010 AKAN MENDATANGI WILAYAH
-0.6021 AKAN MENGADAKAN ACARA
-0.6021 AKAN MENGADAKAN REUNI
-0.3010 AKAN MENGAMBIL CUTI
-1.3010 AKAN MENGHADIRI ACARA
-1.3010 AKAN MENGHADIRI FESTIVAL
-1.0000 AKAN MENGHADIRI RAPAT
-0.8239 AKAN MENGHADIRI SEMINAR
-1.3010 AKAN MENGHADIRI UNDANGAN
-1.3010 AKAN MENGHADIRI UPACARA
-1.3010 AKAN MENGHADIRI WISUDA
-1.0000 AKAN MENGIKUTI KELAS
-1.0000 AKAN MENGIKUTI RAPAT
-1.0000 AKAN MENGIKUTI SEMINAR
-1.0000 AKAN MENGIKUTI SIDANG
-1.0000 AKAN MENGIKUTI WISUDA
-0.3010 AKAN MENGINAP DI
-0.3010 AKAN MENGIRIMKAN PESAN
-0.7782 AKAN MENGUMPULKAN LAPORAN
-0.4771 AKAN MENGUMPULKAN TUGAS
-1.1461 AKAN MENGUNJUNGI CIREBON
-1.1461 AKAN MENGUNJUNGI JAKARTA
-1.1461 AKAN MENGUNJUNGI MAKAM
-1.1461 AKAN MENGUNJUNGI ORANG
-1.1461 AKAN MENGUNJUNGI RUMAH
-1.1461 AKAN MENGUNJUNGI TOKO
-1.1461 AKAN MENGUNJUNGI WISMA
-0.3010 AKAN MENJADI DOSEN
-1.2890 AKAN PERGI BERLIBUR
-0.4061 AKAN PERGI KE
-1.2512 AKAN PERGI WISATA
-0.3010 AKAN PRESENTASI PENELITIAN
-0.3010 AKAN SIDANG PADA
-0.3010 AKAN TIDUR HINGGA
-0.3010 AKAN WISATA WADUK
-0.3010 AKAN WISUDA PADA
-0.3010 AKHIR BULAN NOVEMBER
-0.3010 AKHIR PEKAN </s>
-0.3010 AKHIR TAHUN </s>
-0.3010 ALAM DI BULAN
-0.3010 ALUMNI PADA HARI
-0.3010 ANDA BULAN DEPAN
-0.3010 BAB TIGA MALAM
-0.3010 BALI BULAN DEPAN
-0.3010 BALI HARI SABTU
-0.3010 BALI HINGGA LUSA
-0.3010 BANDUNG PADA MINGGU
-0.3010 BELAJAR FUNDAMENTAL DI
-0.3010 BELANJA CAPIT PADA
-0.3010 BELAS JANUARI </s>
-0.3010 BENDERA HARI SENIN
-0.6021 BERANGKAT KE BALI
-0.9031 BERANGKAT KE BANDUNG
-0.9031 BERANGKAT KE KELAS
-0.3010 BERENCANA BELANJA CAPIT
-0.3010 BERENCANA MENGAMBIL CUTI
-0.3010 BERENCANA PERGI BERLIBUR
-0.3010 BERENCANA SIDANG PADA
-0.6021 BERKUNJUNG KE MAKAM
-0.6021 BERKUNJUNG KE PABRIK
-0.3010 BERLIBUR KE JEPANG
-0.6214 BERLIBUR PADA AKHIR
-0.5836 BERLIBUR PADA HARI
-0.3010 BERMAIN BULAN DEPAN
-0.3010 BERTAMU KE RUMAH
-0.3010 BERTEMU DENGAN TEMAN
-0.3010 BERTEMU DOSEN PEMBIMBING
-0.3010 BERTEMU TEMAN KULIAH
-0.3010 BESAR PADA HARI
-0.3010 BESOK PAGI </s>
-0.3010 BESOK SIANG </s>
-0.3010 BIMBINGAN DENGAN DOSEN
-0.3010 BIMBINGAN HINGGA SORE
-0.3010 BIMBINGAN PADA HARI
-0.3010 BIMBINGAN TESIS PADA
-0.3010 BINATANG PADA SIANG
-0.3010 BULAN AGUSTUS </s>
-0.3010 BULAN APRIL </s>
-0.3010 BULAN DEPAN </s>
-0.3010 BULAN DESEMBER </s>
-0.3010 BULAN FEBRUARI TAHUN
-0.3010 BULAN INI </s>
-0.3010 BULAN JANUARI </s>
-0.3010 BULAN JULI </s>
-0.3010 BULAN JUNI </s>
-0.3010 BULAN MARET </s>
-0.3010 BULAN NOVEMBER </s>
-0.3010 BULAN SEPTEMBER </s>
-0.3010 BULANAN BESOK PAGI
-0.3010 BULANAN PADA HARI
-0.3010 CANDI PADA HARI
-0.3010 CAPIT PADA BULAN
-0.3010 CINCIN DI TANGGAL
-0.6021 CIREBON PADA BULAN
-0.6021 CIREBON PADA TUJUH
-0.3010 COKELAT HARI SABTU
-0.3010 COKELAT PADA BULAN
-0.6214 CUTI BULAN DEPAN
-0.5836 CUTI BULAN INI
-0.3010 CUTI JUMAT INI
-0.3010 CUTI PADA TANGGAL
-0.3010 DAN MINGGU </s>
-0.3010 DAN SENIN </s>
-0.6021 DENGAN DOSEN BESOK
-0.6021 DENGAN DOSEN DI
-0.3010 DENGAN KOMUNITAS BULANAN
-0.4771 DENGAN TEMAN HARI
-0.7782 DENGAN TEMAN MALAM
-0.3010 DENGAN TIM SUPPORT
-0.3010 DEPAN HARI SENIN
-0.3010 DI AKHIR PEKAN
-0.3010 DI BALI BULAN
-0.6021 DI BULAN DESEMBER
-0.6021 DI BULAN JANUARI
-0.3010 DI HARI JUMAT
-0.3010 DI HOTEL SANTIKA
-0.6021 DI KAMPUS </s>
-0.6021 DI KAMPUS LUSA
-0.6021 DI TANGGAL ENAM
-0.6021 DI TANGGAL TIGA
-0.6021 DIA AKAN MENJADI
-0.6021 DIA AKAN SIDANG
-0.3010 DIA INGIN ZIARAH
-0.3010 DISANA PADA PUKUL
-0.3010 DOKTER HARI JUMAT
-0.3010 DOSEN BESOK </s>
-0.3010 DOSEN DI HARI
-0.3010 DOSEN PEMBIMBING PADA
-0.3010 DOSEN TAHUN DEPAN
-0.3010 DOSEN WALI HARI
-0.3010 DUA BELAS JANUARI
-0.3010 EMPAT JANUARI </s>
-0.3010 ENAM FEBRUARI </s>
-0.3010 FEBRUARI TAHUN DEPAN
-0.3010 FESTIVAL PADA LIMA
-0.3010 FILIPINA DI BULAN
-0.3010 FITRAH BESOK </s>
-0.3010 FORUM PADA TANGGAL
-0.3010 FUNDAMENTAL DI TANGGAL
-0.3010 HARI INI </s>
-0.3010 HARI JUMAT </s>
-0.3010 HARI KAMIS </s>
-0.3979 HARI MINGGU </s>
-1.0000 HARI MINGGU DAN
-0.3010 HARI NATAL </s>
-0.3010 HARI RABU </s>
-0.3590 HARI SABTU </s>
-1.2041 HARI SABTU DAN
-0.3010 HARI SELASA </s>
-0.4472 HARI SENIN </s>
-1.1461 HARI SENIN DEPAN
-1.1461 HARI SENIN MINGGU
-0.3010 HINGGA LUSA DEPAN
-0.3010 HINGGA PAGI HARI
-0.3010 HINGGA SORE NANTI
-0.3010 HOTEL SANTIKA SELAMA
-0.3010 INGIN BERKUNJUNG KE
-0.3010 INGIN BERLIBUR KE
-0.3010 INGIN MEMESAN CINCIN
-0.3010 INGIN MENGUNJUNGI KELUARGA
-0.3010 INGIN PERGI KE
-0.3010 INGIN ZIARAH KUBUR
-0.3010 JADWAL BIMBINGAN DENGAN
-0.3010 JADWAL PERIKSA KE
-0.3010 JADWAL PRESENTASI DI
-0.3010 JADWAL RAPAT TANGGAL
-0.3010 JAKARTA HARI SENIN
-0.3010 JAKARTA PADA BULAN
-0.3010 JANJI BERTEMU DENGAN
-0.6021 JANJI UNTUK MENEMUI
-0.6021 JANJI UNTUK PERGI
-0.3010 JEPANG MINGGU DEPAN
-0.3010 JUMAT INI </s>
-0.3010 JURNAL BULAN DEPAN
-0.3010 KAKEK SAYA BESOK
-0.6021 KAMI ADA JADWAL
-0.6021 KAMI ADA KEGIATAN
-1.2553 KAMI AKAN ADA
-1.2553 KAMI AKAN BERKUNJUNG
-1.2553 KAMI AKAN MEMBAYAR
-1.2553 KAMI AKAN MENDATANGI
-1.2553 KAMI AKAN MENGHADIRI
-1.2553 KAMI AKAN MENGUNJUNGI
-1.2553 KAMI AKAN PERGI
-1.2553 KAMI AKAN WISATA
-1.2553 KAMI AKAN WISUDA
-0.3010 KAMI PERLU MENGHADIRI
-0.3010 KAMPUS HARI SENIN
-0.3010 KAMPUS LUSA </s>
-0.3010 KE ACARA ULANG
-0.6021 KE BALI HARI
-0.6021 KE BALI HINGGA
-0.3010 KE BANDUNG PADA
-0.3010 KE CANDI PADA
-0.3010 KE CIREBON PADA
-0.3010 KE DOKTER HARI
-0.3010 KE FILIPINA DI
-0.3010 KE JAKARTA HARI
-0.3010 KE JEPANG MINGGU
-0.3010 KE KAMPUS HARI
-0.3010 KE KELAS PAGI
-0.3010 KE KLINIK PADA
-0.3010 KE LUAR KOTA
-0.3010 KE MAKAM BULAN
-0.3010 KE MALL HARI
-0.3010 KE PABRIK COKELAT
-0.6021 KE RUMAH ANDA
-0.6021 KE RUMAH NENEK
-0.3010 KE TAMAN BERMAIN
-0.3010 KEDUA DESEMBER </s>
-0.3010 KEGIATAN DI KAMPUS
-0.3010 KELAS MENARI PADA
-0.3010 KELAS PAGI INI
-0.3010 KELAS SORE INI
-0.3010 KELUARGA MINGGU DEPAN
-0.3010 KELUARGA PADA BULAN
-0.6114 KITA AKAN MELAKUKAN
-0.8939 KITA AKAN MENGHADIRI
-0.8939 KITA AKAN MENGUNJUNGI
-0.3010 KLINIK PADA HARI
-0.3010 KOMUNITAS BULANAN BESOK
-0.3010 KONFERENSI JURNAL BULAN
-0.3010 KOTA PEKAN DEPAN
-0.3010 KUBUR PADA TANGGAL
-0.3010 KULIAH DENGAN TEMAN
-0.3010 KULIAH PADA HARI
-0.3010 KULIAH PEMROSESAN SUARA
-0.3010 LAPORAN BAB TIGA
-0.3010 LAPORAN DENGAN DOSEN
-0.3010 LIBUR TAHUN BARU
-0.3010 LIBURAN DENGAN TEMAN
-0.3010 LIMA AGUSTUS </s>
-0.3010 LIMA FEBRUARI </s>
-0.3010 LIMA JANUARI </s>
-0.3010 LIMA NOVEMBER </s>
-0.3010 LIMA SORE </s>
-0.3010 LOKASI PADA HARI
-0.3010 LUAR KOTA PEKAN
-0.3010 LUSA DEPAN </s>
-0.3010 MAKAM BULAN DEPAN
-0.3010 MAKAM KAKEK SAYA
-0.3010 MALAM INI </s>
-0.3010 MALL HARI SABTU
-0.3010 MEETING PAGI INI
-0.3010 MEETING PEKAN DEPAN
-0.3010 MELAKUKAN PEMERIKSAAN PADA
-0.3010 MELAKUKAN WISATA ALAM
-0.3010 MELAKUKAN ZUMBA PADA
-0.3010 MEMBAYAR ZAKAT FITRAH
-0.3010 MEMBICARAKAN LAPORAN DENGAN
-0.3010 MEMBICARAKAN RENCANA LIBURAN
-0.3010 MEMESAN CINCIN DI
-0.3010 MEMESAN COKELAT HARI
-0.3010 MEMILIKI JADWAL BIMBINGAN
-0.3010 MENARI PADA HARI
-0.3010 MENDATANGI WILAYAH SELATAN
-0.3010 MENDATANGI WISMA PADA
-0.3010 MENEMUI DOSEN WALI
-0.3010 MENGADAKAN ACARA SYUKURAN
-0.3010 MENGADAKAN REUNI SEKOLAH
-0.6114 MENGAMBIL CUTI BULAN
-0.8939 MENGAMBIL CUTI JUMAT
-0.8939 MENGAMBIL CUTI PADA
-0.3010 MENGHADIRI ACARA KONFERENSI
-0.3010 MENGHADIRI FESTIVAL PADA
-0.3010 MENGHADIRI FORUM PADA
-0.6021 MENGHADIRI RAPAT NATAL
-0.6021 MENGHADIRI RAPAT SIANG
-0.7782 MENGHADIRI SEMINAR PROPOSAL
-0.4771 MENGHADIRI SEMINAR TESIS
-0.3010 MENGHADIRI UNDANGAN PERNIKAHAN
-0.3010 MENGHADIRI UPACARA BENDERA
-0.3010 MENGHADIRI WISUDA TEMAN
-0.3010 MENGIKUTI KELAS MENARI
-0.3010 MENGIKUTI RAPAT BULANAN
-0.3010 MENGIKUTI SEMINAR TESIS
-0.3010 MENGIKUTI SIDANG TESIS
-0.3010 MENGIKUTI WISUDA PADA
-0.3010 MENGINAP DI HOTEL
-0.3010 MENGIRIMKAN PESAN SORE
-0.3010 MENGUMPULKAN LAPORAN BAB
-0.6021 MENGUMPULKAN TUGAS BESOK
-0.6021 MENGUMPULKAN TUGAS KULIAH
-0.3010 MENGUNJUNGI CIREBON PADA
-0.3010 MENGUNJUNGI JAKARTA PADA
-0.3010 MENGUNJUNGI KELUARGA MINGGU
-0.3010 MENGUNJUNGI MAKAM KAKEK
-0.3010 MENGUNJUNGI ORANG TUA
-0.3010 MENGUNJUNGI RUMAH NENEK
-0.3010 MENGUNJUNGI TOKO BINATANG
-0.3010 MENGUNJUNGI WISMA PADA
-0.3010 MENJADI DOSEN TAHUN
-0.3010 MINGGU DAN SENIN
-0.3802 MINGGU DEPAN </s>
-1.0792 MINGGU DEPAN HARI
-0.3010 MINGGU KEDUA DESEMBER
-0.3010 NATAL PADA HARI
-0.3010 NENEK DI AKHIR
-0.3010 NENEK HARI MINGGU
-0.3010 ORANG TUA PADA
-0.3010 PABRIK COKELAT PADA
-0.5836 PADA AKHIR BULAN
-0.6214 PADA AKHIR TAHUN
-1.3010 PADA BULAN AGUSTUS
-1.3010 PADA BULAN APRIL
-1.3010 PADA BULAN FEBRUARI
-1.3010 PADA BULAN JULI
-1.0000 PADA BULAN JUNI
-1.3010 PADA BULAN MARET
-1.0000 PADA BULAN NOVEMBER
-1.3010 PADA BULAN SEPTEMBER
-0.3010 PADA EMPAT JANUARI
-1.5798 PADA HARI JUMAT
-1.5798 PADA HARI KAMIS
-1.1027 PADA HARI MINGGU
-1.5798 PADA HARI NATAL
-1.2788 PADA HARI RABU
-0.8808 PADA HARI SABTU
-1.1027 PADA HARI SELASA
-1.1027 PADA HARI SENIN
-0.3010 PADA LIBUR TAHUN
-0.3010 PADA LIMA FEBRUARI
-0.3010 PADA MINGGU KEDUA
-0.3010 PADA PUKUL LIMA
-0.3010 PADA SIANG INI
-0.3010 PADA TAHUN BARU
-1.0305 PADA TANGGAL DUA
-0.6917 PADA TANGGAL LIMA
-0.9927 PADA TANGGAL SATU
-0.9927 PADA TANGGAL SEPULUH
-0.3010 PADA TUJUH APRIL
-0.3010 PAGI HARI </s>
-0.3010 PAGI INI </s>
-0.3010 PEKAN DEPAN </s>
-0.3010 PEMBIMBING PADA HARI
-0.3010 PEMERIKSAAN PADA HARI
-0.3010 PEMROSESAN SUARA PADA
-0.3010 PENELITIAN DI BALI
-0.3010 PERGI BERLIBUR PADA
-1.3010 PERGI KE ACARA
-1.3010 PERGI KE CANDI
-1.3010 PERGI KE CIREBON
-1.3010 PERGI KE FILIPINA
-1.3010 PERGI KE JAKARTA
-1.3010 PERGI KE KAMPUS
-1.3010 PERGI KE LUAR
-1.3010 PERGI KE MALL
-1.3010 PERGI KE RUMAH
-1.3010 PERGI KE TAMAN
-0.3010 PERGI WISATA PADA
-0.3010 PERIKSA KE DOKTER
-0.3010 PERLU MEMESAN COKELAT
-0.3010 PERLU MENDATANGI WISMA
-0.3010 PERLU MENGHADIRI FORUM
-0.3010 PERNIKAHAN PADA HARI
-0.3010 PERTEMUAN ALUMNI PADA
-0.3010 PERTEMUAN DENGAN KOMUNITAS
-0.3010 PESAN SORE NANTI
-0.3010 PONAKAN BESOK </s>
-0.3010 PRESENTASI DI KAMPUS
-0.3010 PRESENTASI PENELITIAN DI
-0.3010 PRESENTASI TUGAS BESAR
-0.3010 PROPOSAL SENIN </s>
-0.3010 PUKUL LIMA SORE
-0.3010 PULUH MARET </s>
-0.3010 RAPAT BULANAN PADA
-0.3010 RAPAT DENGAN TIM
-0.3010 RAPAT NATAL PADA
-0.3010 RAPAT SIANG NANTI
-0.3010 RAPAT TANGGAL LIMA
-0.3010 RENCANA LIBURAN DENGAN
-0.3010 REUNI PADA HARI
-0.3010 REUNI SEKOLAH PADA
-0.3010 RUMAH ANDA BULAN
-0.6021 RUMAH NENEK DI
-0.6021 RUMAH NENEK HARI
-0.3010 SABTU DAN MINGGU
-0.3010 SANTIKA SELAMA TIGA
-0.3010 SATU FEBRUARI </s>
-1.3010 SAYA ADA BIMBINGAN
-1.3010 SAYA ADA JADWAL
-1.1249 SAYA ADA JANJI
-1.6021 SAYA ADA KE
-1.6021 SAYA ADA KELAS
-1.3010 SAYA ADA KULIAH
-1.3010 SAYA ADA MEETING
-1.6021 SAYA ADA PERGI
-1.3010 SAYA ADA PERTEMUAN
-1.6021 SAYA ADA PRESENTASI
-1.6021 SAYA ADA RAPAT
-1.6021 SAYA ADA REUNI
-1.6021 SAYA ADA SURVEI
-1.7069 SAYA AKAN ADA
-2.0079 SAYA AKAN BELAJAR
-1.4058 SAYA AKAN BERANGKAT
-2.0079 SAYA AKAN BERTAMU
-1.7069 SAYA AKAN BERTEMU
-2.0079 SAYA AKAN MELAKUKAN
-1.7069 SAYA AKAN MEMBICARAKAN
-1.7069 SAYA AKAN MENGADAKAN
-1.5308 SAYA AKAN MENGAMBIL
-1.1048 SAYA AKAN MENGHADIRI
-1.3089 SAYA AKAN MENGIKUTI
-2.0079 SAYA AKAN MENGINAP
-2.0079 SAYA AKAN MENGIRIMKAN
-1.5308 SAYA AKAN MENGUMPULKAN
-1.3089 SAYA AKAN MENGUNJUNGI
-1.1093 SAYA AKAN PERGI
-2.0079 SAYA AKAN PRESENTASI
-2.0079 SAYA AKAN TIDUR
-0.8939 SAYA BERENCANA BELANJA
-0.9317 SAYA BERENCANA MENGAMBIL
-0.8939 SAYA BERENCANA PERGI
-0.8939 SAYA BERENCANA SIDANG
-0.7782 SAYA BESOK </s>
-0.7782 SAYA BESOK PAGI
-0.7782 SAYA BESOK SIANG
-1.0000 SAYA INGIN BERKUNJUNG
-1.0000 SAYA INGIN BERLIBUR
-1.0000 SAYA INGIN MEMESAN
-1.0000 SAYA INGIN MENGUNJUNGI
-1.0000 SAYA INGIN PERGI
-0.3010 SAYA MEMILIKI JADWAL
-0.6021 SAYA PERLU MEMESAN
-0.6021 SAYA PERLU MENDATANGI
-0.3010 SEKOLAH PADA BULAN
-0.3010 SELAMA TIGA HARI
-0.3010 SELATAN MINGGU DEPAN
-0.3010 SEMINAR PROPOSAL SENIN
-0.7782 SEMINAR TESIS MINGGU
-0.4771 SEMINAR TESIS TEMAN
-0.3010 SENIN DEPAN </s>
-0.3010 SENIN MINGGU DEPAN
-0.3010 SEPULUH NOVEMBER </s>
-0.3010 SIANG INI </s>
-0.3010 SIANG NANTI </s>
-0.3010 SIDANG PADA BULAN
-0.3010 SIDANG TESIS BULAN
-0.3010 SORE INI </s>
-0.3010 SORE NANTI </s>
-0.3010 SUARA PADA HARI
-0.3010 SUPPORT HARI SELASA
-0.3010 SURVEI LOKASI PADA
-0.3010 SYUKURAN PADA BULAN
-0.3010 TAHUN BARU </s>
-0.3010 TAHUN DEPAN </s>
-0.3010 TAHUN PONAKAN BESOK
-0.3010 TAMAN BERMAIN BULAN
-0.3010 TANGGAL DUA BELAS
-0.3010 TANGGAL ENAM FEBRUARI
-0.7782 TANGGAL LIMA AGUSTUS
-0.7782 TANGGAL LIMA JANUARI
-0.7782 TANGGAL LIMA NOVEMBER
-0.3010 TANGGAL SATU FEBRUARI
-0.3010 TANGGAL SEPULUH NOVEMBER
-0.3010 TANGGAL TIGA PULUH
-0.6021 TEMAN HARI INI
-0.6021 TEMAN HARI MINGGU
-0.3010 TEMAN KULIAH PADA
-0.3010 TEMAN MALAM INI
-0.3010 TEMAN MINGGU DEPAN
-0.3010 TEMAN SAYA BESOK
-0.3010 TESIS BULAN DEPAN
-0.3010 TESIS MINGGU DEPAN
-0.3010 TESIS PADA HARI
-0.6021 TESIS TEMAN MINGGU
-0.6021 TESIS TEMAN SAYA
-0.3010 TIDUR HINGGA PAGI
-0.3010 TIGA HARI </s>
-0.3010 TIGA MALAM INI
-0.3010 TIGA PULUH MARET
-0.3010 TIM SUPPORT HARI
-0.3010 TOKO BINATANG PADA
-0.3010 TUA PADA LIBUR
-0.3010 TUGAS BESAR PADA
-0.3010 TUGAS BESOK </s>
-0.3010 TUGAS KULIAH PADA
-0.3010 TUJUH APRIL </s>
-0.3010 ULANG TAHUN PONAKAN
-0.3010 UNDANGAN PERNIKAHAN PADA
-0.3010 UNTUK MENEMUI DOSEN
-0.3010 UNTUK PERGI KE
-0.3010 UPACARA BENDERA HARI
-0.3010 WADUK PADA TANGGAL
-0.3010 WALI HARI SELASA
-0.3010 WILAYAH SELATAN MINGGU
-0.3010 WISATA ALAM DI
-0.3010 WISATA PADA HARI
-0.3010 WISATA WADUK PADA
-0.6021 WISMA PADA EMPAT
-0.6021 WISMA PADA TAHUN
-0.6021 WISUDA PADA AKHIR
-0.6021 WISUDA PADA BULAN
-0.3010 WISUDA TEMAN SAYA
-0.3010 ZAKAT FITRAH BESOK
-0.3010 ZIARAH KUBUR PADA
-0.3010 ZUMBA PADA TANGGAL

\end\